digraph Tree {
node [shape=box, style="filled, rounded", color="black", fontname="helvetica"] ;
edge [fontname="helvetica"] ;
0 [label=<Dificil &le; 0.5<br/>gini = 0.48<br/>samples = 5<br/>value = [3, 2]<br/>class = 1>, fillcolor="#f6d5bd"] ;
1 [label=<gini = 0.0<br/>samples = 3<br/>value = [3, 0]<br/>class = 1>, fillcolor="#e58139"] ;
0 -> 1 [labeldistance=2.5, labelangle=45, headlabel="True"] ;
2 [label=<gini = 0.0<br/>samples = 2<br/>value = [0, 2]<br/>class = 0>, fillcolor="#399de5"] ;
0 -> 2 [labeldistance=2.5, labelangle=-45, headlabel="False"] ;
}
